tree
version=v4
num_class=1
num_tree_per_iteration=1
label_index=0
max_feature_idx=8
objective=binary sigmoid:1
feature_names=Column_0 Column_1 Column_2 Column_3 Column_4 Column_5 Column_6 Column_7 Column_8
feature_infos=[-2.1007074616482906:0.47603010807385993] [-0.70916970188910444:1.410099722726696] [-1.2137988084137703:5.0860304263977509] [-1.4333757119593873:29.288602288607443] [-1.2263744454811538:3.7747670189818678] [-0.33581805969769501:22.930951591424048] [-0.69087873232670671:49.592038372614766] [-0.42807237850026042:39.672353787201672] [-0.20821311515837557:6.8120309897863134]
tree_sizes=1804 1856 1848 1849 1849 1850 1859 1853 1858 1849 1857 1854 1859 1858 1855 1862 1855 1859 1856 1855 1856 1856 1850 1859

Tree=0
num_leaves=16
num_cat=0
split_feature=4 4 4 6 6 6 3 2 2 2 6 6 0 4 4
split_gain=21085.5 3152.66 11188.3 1424.59 1398.81 367.628 248.504 125.251 104.418 86.007 73.1084 44.1567 34.8115 92.4557 32.9806
threshold=1.0000000180025095e-35 -1.2178108470831004 -0.0051717364788055999 -0.69008807069539413 -0.69008807069539413 -0.078115968059620081 -0.56317190159850405 1.2800883496726938 1.6044165318080763 -0.38577913129540725 -0.68692542417014468 2.0155560316555357 1.0000000180025095e-35 1.2656326883523039 0.46065443893531061
decision_type=2 2 2 2 2 2 2 2 2 2 2 2 2 2 2
left_child=1 -1 3 -3 -2 7 9 -4 11 -5 -9 -7 13 14 -6
right_child=4 2 5 6 12 8 -8 10 -10 -11 -12 -13 -14 -15 -16
leaf_value=0.24539925137350249 0.24449038176336418 0.24558306520005296 0.24439952617093272 0.21515399452700204 0.21551958408577965 0.2380943716320138 0.20791570445130661 0.24514500742588494 0.22629252354541193 0.23226130823220345 0.23446439442804423 0.22843984269174661 0.20815206968903327 0.20966525460763463 0.24131776581999587
leaf_weight=2828.9494063407183 109.82138060033321 114.01680412888527 2678.4077385514975 64.412090644240379 7.6504781991243389 614.25936250388622 1503.689150556922 91.312159150838852 97.975478872656822 54.046926632523537 214.95375843346119 51.33224081993103 3929.6311085373163 110.80853907763958 14.067008301615713
leaf_count=11463 445 462 10853 261 31 2489 6093 370 397 219 871 208 15923 449 57
internal_value=0.227619 0.236825 0.232402 0.211416 0.209274 0.242123 0.209014 0.243707 0.235931 0.222959 0.237649 0.23735 0.208322 0.213363 0.23223
internal_weight=0 8313.36 5484.41 1736.16 4171.98 3748.24 1622.15 2984.67 763.567 118.459 306.266 665.592 4062.16 132.526 21.7175
internal_count=50591 33686 22223 7035 16905 15188 6573 12094 3094 480 1241 2697 16460 537 88
is_linear=0
shrinkage=1


Tree=1
num_leaves=16
num_cat=0
split_feature=4 4 4 6 6 6 3 2 2 2 6 6 0 4 4
split_gain=20646.2 3101.36 10970.2 1393.71 1367.88 361.983 242.421 123.387 102.539 84.1788 71.9481 43.3842 33.9214 90.3409 32.3486
threshold=1.0000000180025095e-35 -1.2178108470831004 -0.0051717364788055999 -0.69008807069539413 -0.69008807069539413 -0.078115968059620081 -0.56317190159850405 1.2800883496726938 1.6044165318080763 -0.38577913129540725 -0.68692542417014468 2.0155560316555357 1.0000000180025095e-35 1.2656326883523039 0.46065443893531061
decision_type=2 2 2 2 2 2 2 2 2 2 2 2 2 2 2
left_child=1 -1 3 -3 -2 7 9 -4 11 -5 -9 -7 13 14 -6
right_child=4 2 5 6 12 8 -8 10 -10 -11 -12 -13 -14 -15 -16
leaf_value=0.017639722861875852 0.01673618424307672 0.017822483686168879 0.016645872765223467 -0.012323111982314134 -0.011962150435760719 0.010383491763483322 -0.019464201332714367 0.017386949056888503 -0.0013128031688911879 0.0045985513526405966 0.0067825163097343481 0.00081292140964752942 -0.01923117425374811 -0.017739105887458279 0.013583796161189106
leaf_weight=2823.0348696559668 109.60391640663147 113.77587300539017 2673.1336508244276 64.500663354992867 7.6606976091861751 613.51398506760597 1506.9057569950819 91.124079525470734 97.990161791443825 54.018212378025055 214.78457832336426 51.327455282211304 3937.9405828714371 111.02536873519421 14.044537469744681
leaf_count=11463 445 462 10853 261 31 2489 6093 370 397 219 871 208 15923 449 57
internal_value=0 0.00912433 0.00473847 -0.0160128 -0.0181249 0.0143835 -0.0183811 0.0159574 0.00823707 -0.0046106 0.00994137 0.00964462 -0.0190636 -0.0140913 0.00456755
internal_weight=0 8304.11 5481.07 1739.2 4180.28 3741.87 1625.42 2979.04 762.832 118.519 305.909 664.841 4070.67 132.731 21.7052
internal_count=50591 33686 22223 7035 16905 15188 6573 12094 3094 480 1241 2697 16460 537 88
is_linear=0
shrinkage=0.01


Tree=2
num_leaves=16
num_cat=0
split_feature=4 4 4 6 6 6 3 2 2 2 6 6 0 4 4
split_gain=20219.8 3051.35 10757.8 1363.78 1337.93 356.548 236.597 121.598 100.7 82.3972 70.8286 42.6291 33.0709 88.2945 31.7313
threshold=1.0000000180025095e-35 -1.2178108470831004 -0.0051717364788055999 -0.69008807069539413 -0.69008807069539413 -0.078115968059620081 -0.56317190159850405 1.2800883496726938 1.6044165318080763 -0.38577913129540725 -0.68692542417014468 2.0155560316555357 1.0000000180025095e-35 1.2656326883523039 0.46065443893531061
decision_type=2 2 2 2 2 2 2 2 2 2 2 2 2 2 2
left_child=1 -1 3 -3 -2 7 9 -4 11 -5 -9 -7 13 14 -6
right_child=4 2 5 6 12 8 -8 10 -10 -11 -12 -13 -14 -15 -16
leaf_value=0.017502509203501826 0.016603906172572486 0.017684302476170193 0.016514101587495274 -0.012184159114044359 -0.011827674595950282 0.01029264995248985 -0.019232359701125731 0.017251092232170393 -0.0012994820348436024 0.0045550224213520823 0.0067201110661597816 0.00080486736111730188 -0.019002483822722637 -0.017530412307097638 0.013470636252158748
leaf_weight=2816.746083855629 109.37347531318665 113.51952096819878 2667.5466304421425 64.583472266793251 7.6702698469162014 612.7433500289917 1509.805496647954 90.924283862113953 98.004613995552063 53.98922073841095 214.61221837997437 51.32270073890686 3945.4409624487162 111.22261494398117 14.021010875701903
leaf_count=11463 445 462 10853 261 31 2489 6093 370 397 219 871 208 15923 449 57
internal_value=0 0.00904449 0.00469468 -0.0158279 -0.0179116 0.0142654 -0.0181641 0.0158297 0.0081629 -0.00456238 0.00985401 0.00955938 -0.0188372 -0.013931 0.00452488
internal_weight=0 8293.8 5477.05 1741.9 4187.73 3735.15 1628.38 2973.08 762.071 118.573 305.537 664.066 4078.35 132.914 21.6913
internal_count=50591 33686 22223 7035 16905 15188 6573 12094 3094 480 1241 2697 16460 537 88
is_linear=0
shrinkage=0.01


Tree=3
num_leaves=16
num_cat=0
split_feature=4 4 4 6 6 6 3 2 2 2 6 6 0 4 4
split_gain=19805.7 3002.58 10551 1334.76 1308.91 351.417 231.018 116.35 105.166 80.667 68.8646 43.8124 32.2576 86.3132 31.1283
threshold=1.0000000180025095e-35 -1.2178108470831004 -0.0051717364788055999 -0.69008807069539413 -0.69008807069539413 -0.11923037288786327 -0.56317190159850405 1.2800883496726938 1.6044165318080763 -0.3366384976385311 -0.68692542417014468 2.0155560316555357 1.0000000180025095e-35 1.2656326883523039 0.46065443893531061
decision_type=2 2 2 2 2 2 2 2 2 2 2 2 2 2 2
left_child=1 -1 3 -3 -2 7 9 -4 11 -5 -9 -7 13 14 -6
right_child=4 2 5 6 12 8 -8 10 -10 -11 -12 -13 -14 -15 -16
leaf_value=0.017368699110006245 0.016474650839311981 0.017549605222036805 0.016442277687387638 -0.011407396702523616 -0.011695693423930209 0.010390753645264848 -0.019007241397400045 0.017118527702419836 -0.001143805683413549 0.0053514978295865915 0.0066736486255802906 0.00079689240835982696 -0.018780340181221763 -0.017327201613931555 0.013359433900486051
leaf_weight=2810.09534740448 109.13048170506954 113.24825057387352 2618.9841885268688 69.834919720888138 7.679211080074313 657.08314724266529 1512.3971764147282 90.713163614273071 102.45037050545216 48.785718619823456 207.54327973723412 51.317980289459229 3952.1543134897947 111.40081964433193 13.996465042233465
leaf_count=11463 445 462 10679 282 31 2673 6093 370 415 198 843 208 15923 449 57
internal_value=0 0.00896648 0.00465187 -0.0156482 -0.0177042 0.0141497 -0.0179532 0.0157683 0.00832619 -0.00451488 0.0098504 0.00969576 -0.0186173 -0.0137747 0.00448296
internal_weight=0 8282.45 5472.36 1744.27 4194.36 3728.09 1631.02 2917.24 810.851 118.621 298.256 708.401 4085.23 133.076 21.6757
internal_count=50591 33686 22223 7035 16905 15188 6573 11892 3296 480 1213 2881 16460 537 88
is_linear=0
shrinkage=0.01


Tree=4
num_leaves=16
num_cat=0
split_feature=4 4 4 6 6 6 3 2 2 2 6 6 6 0 4
split_gain=19403.5 2955 10349.6 1306.62 1280.79 346.429 225.672 118.531 97.1365 79.1075 69.3983 41.1544 36.5794 31.4793 84.3943
threshold=1.0000000180025095e-35 -1.2178108470831004 -0.0051717364788055999 -0.69008807069539413 -0.69008807069539413 -0.078115968059620081 -0.56317190159850405 1.6044165318080763 1.6044165318080763 -0.38577913129540725 -0.68692542417014468 2.0155560316555357 -0.56832617947328923 1.0000000180025095e-35 1.2656326883523039
decision_type=2 2 2 2 2 2 2 2 2 2 2 2 2 2 2
left_child=1 -1 3 -3 -2 7 9 12 11 -5 -9 -7 -4 14 -6
right_child=4 2 5 6 13 8 -8 10 -10 -11 -12 -13 -14 -15 -16
leaf_value=0.017238170728414222 0.016348312997900509 0.01741826803885466 0.017095797889818857 -0.011921160836145724 0.0044417545623228411 0.01011296969647895 -0.018788540630116587 0.016978536772407331 -0.0012746986735488524 0.0044765626916448099 0.0046921913698744133 0.000788995290514892 0.014743089604799553 -0.01856444714681801 -0.017129248346407149
leaf_weight=2803.0946171432734 108.87535996735096 112.96257126331329 1634.5421421676874 64.728726223111153 21.658472806215286 611.11454993486404 1514.6896939873695 66.278615906834602 98.031294077634811 53.935194119811058 150.05869650840759 51.313287734985352 1109.3630439639091 3958.103414028883 111.56051808595657
leaf_count=11463 445 462 6680 261 88 2489 6093 271 397 219 610 208 4533 15923 449
internal_value=0 0.00889023 0.00461 -0.0154734 -0.0175027 0.0140362 -0.0177482 0.0155827 0.00801583 -0.00446806 0.00845632 0.00939071 0.0161446 -0.0184035 -0.0136223
internal_weight=0 8270.11 5467.02 1746.32 4200.2 3720.7 1633.35 2960.24 760.459 118.664 216.337 662.428 2743.91 4091.32 133.219
internal_count=50591 33686 22223 7035 16905 15188 6573 12094 3094 480 881 2697 11213 16460 537
is_linear=0
shrinkage=0.01


Tree=5
num_leaves=16
num_cat=0
split_feature=4 4 4 6 6 6 3 2 2 2 6 6 0 4 4
split_gain=19012.5 2908.58 10153.2 1279.31 1253.52 341.648 220.541 113.529 101.479 77.478 66.9933 42.3147 30.744 82.5453 30.5564
threshold=1.0000000180025095e-35 -1.2178108470831004 -0.0051717364788055999 -0.69008807069539413 -0.69008807069539413 -0.11923037288786327 -0.56317190159850405 1.2800883496726938 1.6044165318080763 -0.3366384976385311 -0.68692542417014468 2.0155560316555357 1.0000000180025095e-35 1.2656326883523039 0.46065443893531061
decision_type=2 2 2 2 2 2 2 2 2 2 2 2 2 2 2
left_child=1 -1 3 -3 -2 7 9 -4 11 -5 -9 -7 13 14 -6
right_child=4 2 5 6 12 8 -8 10 -10 -11 -12 -13 -14 -15 -16
leaf_value=0.017110809585142956 0.016224792635186815 0.017290173640698524 0.016193766956923736 -0.011163805613189158 -0.01161522669758506 0.010211381216892459 -0.018575978283809511 0.016862663366940894 -0.0011219320005953226 0.0052596059571080192 0.0065397071540333578 0.00078117696972615134 -0.018354534556500959 -0.016936330407571167 0.013214002501972417
leaf_weight=2795.7560207247734 108.60852785408497 112.66295805573463 2606.5523467510939 69.973940849304199 7.6844365000724819 655.24561287462711 1516.6914930939674 90.258162304759026 102.47467765212059 48.726999163627625 207.15701512992382 51.308629274368286 3963.3098557442427 111.7022388279438 13.962184622883795
leaf_count=11463 445 462 10679 282 31 2673 6093 370 415 198 843 208 15923 449 57
internal_value=0 0.00881568 0.00456904 -0.0153033 -0.0173067 0.0139248 -0.0175486 0.0155259 0.0081778 -0.00442196 0.00967247 0.00952658 -0.0181956 -0.0134728 0.00439976
internal_weight=0 8256.81 5461.05 1748.06 4205.27 3713 1635.39 2903.97 809.029 118.701 297.415 706.554 4096.66 133.349 21.6466
internal_count=50591 33686 22223 7035 16905 15188 6573 11892 3296 480 1213 2881 16460 537 88
is_linear=0
shrinkage=0.01


Tree=6
num_leaves=16
num_cat=0
split_feature=4 4 4 6 6 6 3 2 2 2 6 6 6 0 4
split_gain=18632.5 2863.28 9961.82 1252.8 1227.07 337.018 215.618 115.653 93.7205 75.9735 67.4797 39.7438 36.1182 30.0316 80.7447
threshold=1.0000000180025095e-35 -1.2178108470831004 -0.0051717364788055999 -0.69008807069539413 -0.69008807069539413 -0.078115968059620081 -0.56317190159850405 1.6044165318080763 1.6044165318080763 -0.38577913129540725 -0.68692542417014468 2.0155560316555357 -0.56832617947328923 1.0000000180025095e-35 1.2656326883523039
decision_type=2 2 2 2 2 2 2 2 2 2 2 2 2 2 2
left_child=1 -1 3 -3 -2 7 9 12 11 -5 -9 -7 -4 14 -6
right_child=4 2 5 6 13 8 -8 10 -10 -11 -12 -13 -14 -15 -16
leaf_value=0.016986506087337757 0.016103992906214032 0.017165209352976496 0.016850795334125972 -0.011667529329552423 0.0043596553320966024 0.0099379964400048877 -0.01836928889895385 0.016728874887173166 -0.0012503990391713974 0.0043995576532496888 0.0045887418947422069 0.00077343483466451386 0.014507317903849449 -0.018150341968338722 -0.016748240307549483
leaf_weight=2788.0908317416906 108.33038322627544 112.34988597035408 1626.2227467298508 64.853845775127411 21.627785950899124 609.39350952208042 1518.4108358770609 65.930457189679146 98.057193279266357 53.879733860492706 149.84523612260818 51.303998708724976 1104.2279309481382 3967.7949930429459 111.8264903575182
leaf_count=11463 445 462 6680 261 88 2489 6093 271 397 219 610 208 4533 15923 449
internal_value=0 0.00874278 0.00452895 -0.0151377 -0.0171159 0.0138155 -0.0173545 0.0153461 0.0078724 -0.0043765 0.00829817 0.00922636 0.0159031 -0.0179934 -0.0133275
internal_weight=0 8242.57 5454.48 1749.49 4209.58 3704.98 1637.14 2946.23 758.755 118.734 215.776 660.698 2730.45 4101.25 133.454
internal_count=50591 33686 22223 7035 16905 15188 6573 12094 3094 480 881 2697 11213 16460 537
is_linear=0
shrinkage=0.01


Tree=7
num_leaves=16
num_cat=0
split_feature=4 4 4 6 6 6 3 2 2 2 6 6 0 4 4
split_gain=18262.9 2819.05 9775.2 1227.05 1201.4 332.562 210.886 110.922 97.9446 74.4396 65.2431 40.8819 29.3599 79.0107 29.9975
threshold=1.0000000180025095e-35 -1.2178108470831004 -0.0051717364788055999 -0.69008807069539413 -0.69008807069539413 -0.11923037288786327 -0.56317190159850405 1.2800883496726938 1.6044165318080763 -0.30715411744440541 -0.68692542417014468 2.0155560316555357 1.0000000180025095e-35 1.2656326883523039 0.46065443893531061
decision_type=2 2 2 2 2 2 2 2 2 2 2 2 2 2 2
left_child=1 -1 3 -3 -2 7 9 -4 11 -5 -9 -7 13 14 -6
right_child=4 2 5 6 12 8 -8 10 -10 -11 -12 -13 -14 -15 -16
leaf_value=0.016865156312155339 0.015985823133066464 0.017043265672038399 0.015956021225817012 -0.010540637492940848 -0.011535096167377676 0.010036715792249833 -0.018168213847263123 0.016618646861892291 -0.0011004769230335864 0.0057635266154729284 0.0064088404788715924 0.00076576984852686836 -0.017951629514260888 -0.016564785881603695 0.013072082105616771
leaf_weight=2780.1104945987463 108.04131731390953 112.02383002638817 2593.046887665987 73.534266516566277 7.6894660592079189 653.30900481343269 1519.8558936864138 89.762216806411743 102.49824070930481 45.225991487503052 206.75524125993252 51.299402236938477 3971.5792312473059 111.93376778066158 13.926304847002028
leaf_count=11463 445 462 10679 296 31 2673 6093 370 415 184 843 208 15923 449 57
internal_value=0 0.00867147 0.0044897 -0.0149764 -0.0169302 0.0137083 -0.0171654 0.0152935 0.00803309 -0.00433173 0.00949957 0.00936174 -0.0177966 -0.0131847 0.00431847
internal_weight=0 8227.42 5447.31 1750.64 4213.17 3696.67 1638.62 2889.56 807.107 118.76 296.517 704.608 4105.13 133.55 21.6158
internal_count=50591 33686 22223 7035 16905 15188 6573 11892 3296 480 1213 2881 16460 537 88
is_linear=0
shrinkage=0.01


Tree=8
num_leaves=16
num_cat=0
split_feature=4 4 4 6 6 6 3 2 2 2 6 6 6 0 4
split_gain=17903.4 2775.86 9593.17 1202.04 1176.48 328.249 206.345 112.978 90.4441 73.0668 65.6731 38.3936 35.7147 28.7057 77.3183
threshold=1.0000000180025095e-35 -1.2178108470831004 -0.0051717364788055999 -0.69008807069539413 -0.69008807069539413 -0.078115968059620081 -0.56317190159850405 1.6044165318080763 1.6044165318080763 -0.38577913129540725 -0.68692542417014468 2.0155560316555357 -0.56832617947328923 1.0000000180025095e-35 1.2656326883523039
decision_type=2 2 2 2 2 2 2 2 2 2 2 2 2 2 2
left_child=1 -1 3 -3 -2 7 9 12 11 -5 -9 -7 -4 14 -6
right_child=4 2 5 6 13 8 -8 10 -10 -11 -12 -13 -14 -15 -16
leaf_value=0.016746657407529796 0.015870192424144003 0.016924242687615571 0.016616922306596775 -0.011426878935255971 0.0042794292361159258 0.0097674967674304513 -0.017972522402660424 0.016490642438460601 -0.0012265728539444234 0.0043284022133977217 0.0044875765315948246 0.00075818009384003503 0.014280470275614921 -0.017758160675497316 -0.016385777885351688
leaf_weight=2771.8259412646294 107.74172134697437 111.68523770570755 1617.2173752486706 64.958200871944427 21.595370039343834 607.58705316483974 1521.0345654934645 65.55342523753643 98.082335263490677 53.826122239232063 149.62779837846756 51.294833660125732 1098.7108432203531 3974.6832129508257 112.02455951273441
leaf_count=11463 445 462 6680 261 88 2489 6093 271 397 219 610 208 4533 15923 449
internal_value=0 0.00860168 0.00445127 -0.0148192 -0.0167494 0.013603 -0.0169812 0.0151191 0.00773245 -0.00428751 0.00814422 0.00906611 0.0156717 -0.0176049 -0.0130459
internal_weight=0 8211.4 5439.58 1751.5 4216.04 3688.07 1639.82 2931.11 756.964 118.784 215.181 658.882 2715.93 4108.3 133.62
internal_count=50591 33686 22223 7035 16905 15188 6573 12094 3094 480 881 2697 11213 16460 537
is_linear=0
shrinkage=0.01


Tree=9
num_leaves=16
num_cat=0
split_feature=4 4 4 6 6 6 3 2 2 2 6 6 0 4 4
split_gain=17553.5 2733.68 9415.6 1177.74 1152.28 324.095 201.97 108.509 94.5547 71.6241 63.6032 39.5101 28.0904 75.6892 29.4512
threshold=1.0000000180025095e-35 -1.2178108470831004 -0.0051717364788055999 -0.69008807069539413 -0.69008807069539413 -0.11923037288786327 -0.56317190159850405 1.2800883496726938 1.6044165318080763 -0.30715411744440541 -0.68692542417014468 2.0155560316555357 1.0000000180025095e-35 1.2656326883523039 0.46065443893531061
decision_type=2 2 2 2 2 2 2 2 2 2 2 2 2 2 2
left_child=1 -1 3 -3 -2 7 9 -4 11 -5 -9 -7 13 14 -6
right_child=4 2 5 6 12 8 -8 10 -10 -11 -12 -13 -14 -15 -16
leaf_value=0.01663091625150321 0.01575701851427316 0.016808040536838816 0.015728333227134014 -0.010325044107643204 -0.011455319108851635 0.0098665210905768547 -0.017781981351927847 0.016385685248786256 -0.0010794307904792421 0.0056702341389285741 0.0062809250974604222 0.00075066444323076411 -0.017569722217819848 -0.016211041129863192 0.012933525045734459
leaf_weight=2763.247932896018 107.43196003139019 111.33454960584641 2578.5410802215338 73.635720163583755 7.694297909736636 651.28073707222939 1521.9547502696514 89.228118389844894 102.5210784971714 45.165696263313293 206.33920410275459 51.2902991771698 3977.1266316622496 112.09934058785439 13.888911500573156
leaf_count=11463 445 462 10679 296 31 2673 6093 370 415 184 843 208 15923 449 57
internal_value=0 0.00853337 0.00441363 -0.014666 -0.0165732 0.0134997 -0.0168017 0.0150705 0.00789191 -0.00424399 0.00933143 0.00920103 -0.0174182 -0.0129094 0.00423903
internal_weight=0 8194.54 5431.29 1752.09 4218.24 3679.2 1640.76 2874.11 805.092 118.801 295.567 702.571 4110.81 133.683 21.5832
internal_count=50591 33686 22223 7035 16905 15188 6573 11892 3296 480 1213 2881 16460 537 88
is_linear=0
shrinkage=0.01


Tree=10
num_leaves=16
num_cat=0
split_feature=4 4 4 6 6 6 3 2 2 2 6 6 6 3 0
split_gain=17212.9 2692.48 9242.32 1154.11 1128.76 320.066 197.767 110.486 87.2999 70.2907 63.9687 37.0999 35.3643 28.322 27.488
threshold=1.0000000180025095e-35 -1.2178108470831004 -0.0051717364788055999 -0.69008807069539413 -0.69008807069539413 -0.078115968059620081 -0.56317190159850405 1.6044165318080763 1.6044165318080763 -0.38577913129540725 -0.68692542417014468 2.0155560316555357 -0.56832617947328923 -0.94152138436410537 1.0000000180025095e-35
decision_type=2 2 2 2 2 2 2 2 2 2 2 2 2 2 2
left_child=1 -1 3 -3 -2 7 9 12 11 -5 -9 -7 -4 -11 -6
right_child=4 2 5 6 14 8 -8 10 -10 13 -12 -13 -14 -15 -16
leaf_value=0.016517840531789726 0.015646221262487735 0.01669456762326469 0.016393458439480535 -0.011194234696968661 -0.012776636402983611 0.0096012530393505234 -0.017596384762357364 0.016263085227011777 -0.0012032110442087034 0.015192702261697472 0.004388629720501352 0.00074322371850018458 0.01406196586643153 -0.00055863219753928841 -0.01738610679491762
leaf_weight=2754.386889025569 107.11240470409393 110.97219255566597 1607.5727804750204 65.045097336173058 133.71988488733768 605.7015972584486 1522.6238022297621 65.149510890245438 98.106743693351746 16.444433093070984 149.40683424472809 51.285792589187622 1092.8386871218681 37.326594293117523 3978.9284690767527
leaf_count=11463 445 462 6680 261 537 2489 6093 271 397 67 610 208 4533 152 15923
internal_value=0 0.00846648 0.00437674 -0.0145167 -0.0164016 0.0133981 -0.0166268 0.0149011 0.00759583 -0.004201 0.00799428 0.00890978 0.0154499 0.00425849 -0.0172362
internal_weight=0 8176.86 5422.47 1752.41 4219.76 3670.06 1641.44 2914.97 755.094 118.816 214.556 656.987 2700.41 53.771 4112.65
internal_count=50591 33686 22223 7035 16905 15188 6573 12094 3094 480 881 2697 11213 219 16460
is_linear=0
shrinkage=0.01


Tree=11
num_leaves=16
num_cat=0
split_feature=4 4 4 6 6 6 3 2 2 2 6 6 3 0 4
split_gain=16881.2 2652.21 9073.19 1131.14 1105.89 316.192 193.711 106.274 91.3011 68.8961 62.0637 38.1956 27.3446 26.9763 74.1138
threshold=1.0000000180025095e-35 -1.2178108470831004 -0.0051717364788055999 -0.69008807069539413 -0.69008807069539413 -0.11923037288786327 -0.56317190159850405 1.2800883496726938 1.6044165318080763 -0.3366384976385311 -0.68692542417014468 2.0155560316555357 0.34486685703893921 1.0000000180025095e-35 1.2656326883523039
decision_type=2 2 2 2 2 2 2 2 2 2 2 2 2 2 2
left_child=1 -1 3 -3 -2 7 9 -4 11 -5 -9 -7 -12 14 -6
right_child=4 2 5 6 13 8 -8 10 -10 -11 12 -13 -14 -15 -16
leaf_value=0.016407344669064773 0.015537722951350521 0.016583733212990774 0.015510052306632107 -0.01048773605715417 0.0043216203383752852 0.0097005789560783914 -0.017415528895717104 0.016163056493386271 -0.0010587864953067487 0.0050025839423820948 0.0092562558621747115 0.00073585614237901744 0.0018725758357634788 -0.017207116986161505 -0.01590746977389005
leaf_weight=2745.2528875619173 106.78340017795563 110.59858649969101 2563.1049482822418 70.274388983845711 21.597561672329903 649.1677373200655 1523.0492571741343 88.658528566360474 102.54320956766605 48.54870817065239 119.44836270809174 51.281320095062256 86.461733549833298 3980.1079441606998 112.19490273296833
leaf_count=11463 445 462 10679 282 88 2673 6093 370 415 198 489 208 354 15923 449
internal_value=0 0.00840098 0.00434059 -0.014371 -0.016234 0.0132984 -0.0164561 0.0148563 0.00775408 -0.00415871 0.00916779 0.00904425 0.00615585 -0.0170586 -0.012642
internal_weight=0 8158.39 5413.14 1752.47 4220.68 3660.67 1641.87 2857.67 802.992 118.823 294.569 700.449 205.91 4113.9 133.792
internal_count=50591 33686 22223 7035 16905 15188 6573 11892 3296 480 1213 2881 843 16460 537
is_linear=0
shrinkage=0.01


Tree=12
num_leaves=16
num_cat=0
split_feature=4 4 4 6 6 6 3 2 2 2 6 6 6 0 4
split_gain=16558.1 2612.86 8908.06 1108.78 1083.67 312.415 189.807 108.18 84.2809 67.5686 62.3676 35.8596 35.0479 26.437 72.5925
threshold=1.0000000180025095e-35 -1.2178108470831004 -0.0051717364788055999 -0.69008807069539413 -0.69008807069539413 -0.078115968059620081 -0.56317190159850405 1.6044165318080763 1.6044165318080763 -0.30715411744440541 -0.68692542417014468 2.0155560316555357 -0.56832617947328923 1.0000000180025095e-35 1.2656326883523039
decision_type=2 2 2 2 2 2 2 2 2 2 2 2 2 2 2
left_child=1 -1 3 -3 -2 7 9 12 11 -5 -9 -7 -4 14 -6
right_child=4 2 5 6 13 8 -8 10 -10 -11 -12 -13 -14 -15 -16
leaf_value=0.016299340414922096 0.015431448940427613 0.016475449935437963 0.016179593589068626 -0.010011534973866294 0.0042808102809061641 0.0094390599997546537 -0.017239220628902912 0.016045511736764204 -0.0011803035122226232 0.0055296582827208387 0.0042908853788925982 0.00072856081386109479 0.013851613442498458 -0.017032568585249999 -0.015743817624293558
leaf_weight=2735.856177225709 106.44530452787876 110.21415138244629 1597.3280379325151 73.757607951760292 21.585483714938164 603.74337275326252 1523.2382877320051 64.720612108707428 98.130436316132545 45.069879353046417 149.18006259202957 51.276875495910645 1086.6450713425875 3980.6830895245075 112.22735224664211
leaf_count=11463 445 462 6680 296 88 2489 6093 271 397 184 610 208 4533 15923 449
internal_value=0 0.00833681 0.00430514 -0.0142288 -0.0160706 0.0132003 -0.0162896 0.0146916 0.00746239 -0.00411694 0.00784752 0.00875718 0.0152371 -0.0168856 -0.0125136
internal_weight=0 8139.16 5403.3 1752.28 4220.94 3651.02 1642.07 2897.87 753.151 118.827 213.901 655.02 2683.97 4114.5 133.813
internal_count=50591 33686 22223 7035 16905 15188 6573 12094 3094 480 881 2697 11213 16460 537
is_linear=0
shrinkage=0.01


Tree=13
num_leaves=16
num_cat=0
split_feature=4 4 4 6 6 6 3 2 2 2 6 6 6 3 0
split_gain=16243.4 2574.38 8746.81 1087.03 1062.06 308.807 186.047 102.311 89.0009 66.3773 60.0686 37.2579 30.8981 27.7945 25.9192
threshold=1.0000000180025095e-35 -1.2178108470831004 -0.0051717364788055999 -0.69008807069539413 -0.69008807069539413 -0.12871831246361171 -0.56317190159850405 1.6044165318080763 1.6044165318080763 -0.38577913129540725 -0.68692542417014468 2.0155560316555357 -0.56832617947328923 -0.94152138436410537 1.0000000180025095e-35
decision_type=2 2 2 2 2 2 2 2 2 2 2 2 2 2 2
left_child=1 -1 3 -3 -2 7 9 12 11 -5 -9 -7 -4 -11 -6
right_child=4 2 5 6 14 8 -8 10 -10 13 -12 -13 -14 -15 -16
leaf_value=0.016193752681535577 0.015327328104194932 0.016369637758156474 0.016073219225836512 -0.010860462343971256 -0.012387919596621912 0.0095720543871383092 -0.017067281062759693 0.015940299065491409 -0.0010042489021346243 0.015011465152429775 0.0043270305868754536 0.0007213380019339946 0.013849792501758584 -0.00061258454499400739 -0.016862288016727196
leaf_weight=2726.206152677536 106.09845593571663 109.81927961111069 1591.8477864265442 65.144404247403145 133.81883044540882 657.25450852513313 1523.1978849470615 64.497432097792625 103.29824213683605 16.38972070813179 143.92946633696556 51.272464990615845 1029.0433300733566 37.294857829809189 3980.6721750497818
leaf_count=11463 445 462 6680 261 537 2716 6093 271 418 67 589 208 4306 152 15923
internal_value=0 0.00827393 0.00427038 -0.01409 -0.0159112 0.013104 -0.0161271 0.014664 0.00766732 -0.0040757 0.00792074 0.00893157 0.0152002 0.00415739 -0.0167168
internal_weight=0 8119.2 5392.99 1751.85 4220.59 3641.14 1642.03 2829.32 811.825 118.829 208.427 708.527 2620.89 53.6846 4114.49
internal_count=50591 33686 22223 7035 16905 15188 6573 11846 3342 480 860 2924 10986 219 16460
is_linear=0
shrinkage=0.01


Tree=14
num_leaves=16
num_cat=0
split_feature=4 4 4 6 6 6 3 2 2 2 6 6 6 3 3
split_gain=15936.5 2536.76 8589.31 1065.86 1041.02 305.278 182.409 106.36 81.4227 65.0305 60.6913 33.0919 30.144 29.6233 27.3177
threshold=1.0000000180025095e-35 -1.2178108470831004 -0.0051717364788055999 -0.69008807069539413 -0.69008807069539413 -0.078115968059620081 -0.56317190159850405 1.2800883496726938 1.6781274822933907 -0.38577913129540725 -0.68692542417014468 2.0155560316555357 -0.48135340002892862 0.34486685703893921 -0.94152138436410537
decision_type=2 2 2 2 2 2 2 2 2 2 2 2 2 2 2
left_child=1 -1 3 -3 -2 7 9 12 11 -5 -9 -7 -4 -12 -11
right_child=4 2 5 6 -6 8 -8 10 -10 14 13 -13 -14 -15 -16
leaf_value=0.016090501183678052 0.015225293743203184 0.016266218224210153 0.01581749301880531 -0.010747456686916748 -0.016551779359605771 0.0092092148962154789 -0.016899538296044639 0.015846976112205643 -0.0015231940723736005 0.01489497470629819 0.0091717107274527296 0.00088024379725767682 0.013407399117526829 0.00161097317440077 -0.00060640844827746941
leaf_weight=2716.3125502020121 105.74317269027233 109.41435670852661 1860.3769234865904 65.170951947569847 4113.9507430046797 608.14261893928051 1522.9349490702152 87.742837131023407 91.230457350611687 16.352906405925751 121.91863368451595 51.762556403875351 719.72906394302845 90.130618944764137 37.297944933176041
leaf_count=11463 445 462 7832 261 16460 2515 6093 370 369 67 501 210 3021 370 152
internal_value=0 0.00821229 0.00423629 -0.0139544 -0.0157555 0.0130093 -0.0159685 0.0144901 0.00733172 -0.00403515 0.00885233 0.0085559 0.0151452 0.00595805 0.00411845
internal_weight=0 8098.52 5382.2 1751.17 4219.69 3631.03 1641.76 2879.9 751.136 118.822 299.792 659.905 2580.11 212.049 53.6509
internal_count=50591 33686 22223 7035 16905 15188 6573 12094 3094 480 1241 2725 10853 871 219
is_linear=0
shrinkage=0.01


Tree=15
num_leaves=16
num_cat=0
split_feature=4 4 4 6 6 6 3 2 2 2 6 6 3 6 0
split_gain=15637.3 2499.97 8435.45 1045.25 1020.54 301.886 178.895 102.287 85.2518 63.8363 59.2581 35.7437 26.4862 26.3736 25.5782
threshold=1.0000000180025095e-35 -1.2178108470831004 -0.0051717364788055999 -0.69008807069539413 -0.69008807069539413 -0.11923037288786327 -0.56317190159850405 1.2800883496726938 1.6044165318080763 -0.30715411744440541 -0.68692542417014468 2.0155560316555357 0.34486685703893921 -0.56832617947328923 1.0000000180025095e-35
decision_type=2 2 2 2 2 2 2 2 2 2 2 2 2 2 2
left_child=1 -1 3 -3 -2 7 9 13 11 -5 -9 -7 -12 -4 -6
right_child=4 2 5 6 14 8 -8 10 -10 -11 12 -13 -14 -15 -16
leaf_value=0.015989514743748753 0.015125279634367919 0.016165114529707238 0.015922037733346574 -0.0097156540235009033 -0.012091603002241531 0.0093813205629838126 -0.016735827345497997 0.015746213452893183 -0.0010227358822748926 0.0053974262109808737 0.0089748901510640616 0.00070545755583146131 0.0016935321693561216 0.013832034825152571 -0.016535257241486821
leaf_weight=2706.1842520236969 105.37978634238243 108.99976819753647 1534.0544086694717 73.838581249117851 133.8943974673748 644.72421848773956 1522.4562895596027 87.42287403345108 102.58087065815926 44.970555484294891 118.80838033556938 51.262720346450806 86.204076454043388 995.64518663287163 3978.9740251451731
leaf_count=11463 445 462 6485 296 537 2673 6093 370 415 184 489 208 354 4194 15923
internal_value=0 0.00815187 0.00420284 -0.013822 -0.0156033 0.0129162 -0.0158135 0.0144522 0.00748792 -0.00399519 0.00885276 0.0087423 0.00591321 0.0150994 -0.0163906
internal_weight=0 8077.15 5370.97 1750.27 4218.25 3620.7 1641.27 2822.13 798.568 118.809 292.435 695.987 205.012 2529.7 4112.87
internal_count=50591 33686 22223 7035 16905 15188 6573 11892 3296 480 1213 2881 843 10679 16460
is_linear=0
shrinkage=0.01


Tree=16
num_leaves=16
num_cat=0
split_feature=4 4 4 6 6 6 3 2 2 2 6 6 6 3 0
split_gain=15345.6 2463.97 8285.1 1025.17 1000.6 298.569 175.515 99.5924 84.5704 62.6062 58.055 35.4827 30.17 26.8293 25.1654
threshold=1.0000000180025095e-35 -1.2178108470831004 -0.0051717364788055999 -0.69008807069539413 -0.69008807069539413 -0.12871831246361171 -0.56317190159850405 1.6044165318080763 1.6044165318080763 -0.38577913129540725 -0.68692542417014468 2.1404805694028899 -0.56832617947328923 -0.94152138436410537 1.0000000180025095e-35
decision_type=2 2 2 2 2 2 2 2 2 2 2 2 2 2 2
left_child=1 -1 3 -3 -2 7 9 12 11 -5 -9 -7 -4 -11 -6
right_child=4 2 5 6 14 8 -8 10 -10 13 -12 -13 -14 -15 -16
leaf_value=0.015890720681757432 0.015027222682065106 0.016066256993576427 0.015770051372043653 -0.0105363552770638 -0.011969329012771226 0.0092952884861148641 -0.016575995955305664 0.015637829136005574 -0.00097847053800141225 0.014752662122034967 0.0041730116027823248 0.00012705063607891829 0.013562222528501297 -0.00062646940111876586 -0.016376773799994054
leaf_weight=2695.8306528031826 105.0086085498333 108.57587894797325 1574.6951842010021 65.210567370057106 133.90950334072113 659.93516154587269 1521.7682619094849 63.79498465359211 103.32528813183308 16.303716078400612 143.56022460758686 45.097539827227592 1019.7455224841833 37.284356012940407 3977.3128895461559
leaf_count=11463 445 462 6680 261 537 2741 6093 271 418 67 589 183 4306 152 15923
internal_value=0 0.00809261 0.00417001 -0.0136926 -0.0154546 0.0128246 -0.0156621 0.0143693 0.0074706 -0.00395557 0.00770028 0.00870884 0.0149023 0.0040525 -0.0162332
internal_weight=0 8055.13 5359.3 1749.14 4216.23 3610.15 1640.57 2801.8 808.358 118.799 207.355 705.033 2594.44 53.5881 4111.22
internal_count=50591 33686 22223 7035 16905 15188 6573 11846 3342 480 860 2924 10986 219 16460
is_linear=0
shrinkage=0.01


Tree=17
num_leaves=16
num_cat=0
split_feature=4 4 4 6 6 6 3 2 2 2 6 6 6 3 0
split_gain=15061.1 2428.76 8138.15 1005.62 981.19 295.459 172.233 103.364 77.3791 61.4325 58.6159 31.5021 29.4974 28.69 24.7717
threshold=1.0000000180025095e-35 -1.2178108470831004 -0.0051717364788055999 -0.69008807069539413 -0.69008807069539413 -0.078115968059620081 -0.56317190159850405 1.2800883496726938 1.6781274822933907 -0.30715411744440541 -0.68692542417014468 2.1404805694028899 -0.48135340002892862 0.34486685703893921 1.0000000180025095e-35
decision_type=2 2 2 2 2 2 2 2 2 2 2 2 2 2 2
left_child=1 -1 3 -3 -2 7 9 12 11 -5 -9 -7 -4 -12 -6
right_child=4 2 5 6 14 8 -8 10 -10 -11 13 -13 -14 -15 -16
leaf_value=0.015794051444911333 0.014931061769090882 0.015969573543504863 0.01552158090802996 -0.0095233269380860276 -0.011849156843023319 0.0089377330047814094 -0.016419896128216042 0.015550837381558331 -0.0014873968697196036 0.0053082496822852631 0.0089608161807006106 0.00032082081959328368 0.01312596409559621 0.0015095703283182684 -0.016221940395266605
leaf_weight=2685.2602931410074 104.62994433939457 108.14305382966995 1840.0904734879732 73.876898303627968 133.91488087177277 611.13874357938766 1520.8773124068975 86.76152928173542 91.263987377285957 44.900083065032959 121.39689445495605 45.591387510299683 713.19639711081982 89.971589833498001 3975.1330791264772
leaf_count=11463 445 462 7832 296 537 2540 6093 370 369 184 501 185 3021 370 15923
internal_value=0 0.00803448 0.00413778 -0.0135661 -0.0153094 0.0127344 -0.0155142 0.0142018 0.00714053 -0.00391669 0.00862995 0.00833953 0.0148524 0.0057891 -0.0160794
internal_weight=0 8032.47 5347.21 1747.8 4213.68 3599.41 1639.65 2851.42 747.994 118.777 298.13 656.73 2553.29 211.368 4109.05
internal_count=50591 33686 22223 7035 16905 15188 6573 12094 3094 480 1241 2725 10853 871 16460
is_linear=0
shrinkage=0.01


Tree=18
num_leaves=16
num_cat=0
split_feature=4 4 4 6 6 6 3 2 2 2 6 6 6 3 3
split_gain=14783.5 2394.29 7994.48 986.553 962.28 292.291 169.076 102.357 76.0421 60.2858 57.9273 31.0097 29.2718 28.2009 26.3544
threshold=1.0000000180025095e-35 -1.2178108470831004 -0.0051717364788055999 -0.69008807069539413 -0.69008807069539413 -0.078115968059620081 -0.56317190159850405 1.2800883496726938 1.6781274822933907 -0.38577913129540725 -0.68692542417014468 2.0155560316555357 -0.48135340002892862 0.34486685703893921 -0.94152138436410537
decision_type=2 2 2 2 2 2 2 2 2 2 2 2 2 2 2
left_child=1 -1 3 -3 -2 7 9 12 11 -5 -9 -7 -4 -12 -11
right_child=4 2 5 6 -6 8 -8 10 -10 14 13 -13 -14 -15 -16
leaf_value=0.015699444520143799 0.014836741284906805 0.015874999496626567 0.015426171676994137 -0.010331658398389379 -0.01592910143868809 0.0089062026228336581 -0.016267386033788876 0.015456256181369985 -0.0014722964983593166 0.014614091922327448 0.008885327538975904 0.00083945816527580949 0.013035741302018258 0.0014948475756220931 -0.0006459353769058372
leaf_weight=2674.4817136377096 104.24408547580242 107.70165082812309 1832.9921128600836 65.236169993877411 4106.3613178580999 603.92411404848099 1519.7897965461016 86.421230405569077 91.277970135211945 16.252338171005249 121.20495647192001 51.736604988574982 710.96246813237667 89.949226230382919 37.270457610487938
leaf_count=11463 445 462 7832 261 16460 2515 6093 370 369 67 501 210 3021 370 152
internal_value=0 0.00797744 0.00410613 -0.0134424 -0.0151674 0.0126457 -0.0153694 0.014109 0.00707918 -0.0038781 0.0085597 0.00826968 0.0147581 0.00573707 0.00398781
internal_weight=0 8009.2 5334.72 1746.25 4210.61 3588.47 1638.55 2841.53 746.939 118.759 297.575 655.661 2543.95 211.154 53.5228
internal_count=50591 33686 22223 7035 16905 15188 6573 12094 3094 480 1241 2725 10853 871 219
is_linear=0
shrinkage=0.01


Tree=19
num_leaves=16
num_cat=0
split_feature=4 4 4 6 6 6 3 2 2 2 6 6 6 0 4
split_gain=14512.6 2360.56 7854.03 967.975 943.85 289.319 166.005 97.1437 80.4604 59.1295 56.194 33.8798 29.6399 24.5143 71.4658
threshold=1.0000000180025095e-35 -1.2178108470831004 -0.0051717364788055999 -0.69008807069539413 -0.69008807069539413 -0.12871831246361171 -0.56317190159850405 1.6044165318080763 1.6044165318080763 -0.30715411744440541 -0.68692542417014468 2.0155560316555357 -0.56832617947328923 1.0000000180025095e-35 1.2656326883523039
decision_type=2 2 2 2 2 2 2 2 2 2 2 2 2 2 2
left_child=1 -1 3 -3 -2 7 9 12 11 -5 -9 -7 -4 14 -6
right_child=4 2 5 6 13 8 -8 10 -10 -11 -12 -13 -14 -15 -16
leaf_value=0.015606834503630308 0.014744202336654222 0.015782470322162966 0.015486835245076673 -0.0093365796016563092 0.005006279907988043 0.00911051358081808 -0.016118332847333113 0.015353887611534021 -0.00095781331341493849 0.005220739355891302 0.0040235687747231137 0.00066451869747246163 0.013286992201538513 -0.015923972857704412 -0.014792840965059173
leaf_weight=2663.5032840818167 103.85133698582649 107.25200039148331 1556.5055017471313 73.901110514998436 21.770773112773895 650.15826669335365 1518.5117974430323 63.047874554991722 103.34450873732567 44.827693521976471 143.18029335141182 51.236888393759727 1009.8621804863214 3969.3111559450626 112.11990755796432
leaf_count=11463 445 462 6680 296 88 2716 6093 271 418 184 589 208 4306 15923 449
internal_value=0 0.00792147 0.00407505 -0.0133214 -0.0150285 0.0125585 -0.015228 0.0140906 0.00727979 -0.00384026 0.00748746 0.00849353 0.0146212 -0.015782 -0.0115735
internal_weight=0 7985.33 5321.83 1744.49 4207.05 3577.34 1637.24 2772.6 804.74 118.729 206.228 701.395 2566.37 4103.2 133.891
internal_count=50591 33686 22223 7035 16905 15188 6573 11846 3342 480 860 2924 10986 16460 537
is_linear=0
shrinkage=0.01


Tree=20
num_leaves=16
num_cat=0
split_feature=4 4 4 6 6 6 3 2 2 2 6 6 6 3 3
split_gain=14248.3 2327.53 7716.66 949.857 925.903 286.381 163.051 100.673 73.507 58.0638 56.716 31.5932 28.8981 27.7674 25.8924
threshold=1.0000000180025095e-35 -1.2178108470831004 -0.0051717364788055999 -0.69008807069539413 -0.69008807069539413 -0.078115968059620081 -0.56317190159850405 1.2800883496726938 1.6044165318080763 -0.38577913129540725 -0.68692542417014468 2.1404805694028899 -0.48135340002892862 0.34486685703893921 -0.94152138436410537
decision_type=2 2 2 2 2 2 2 2 2 2 2 2 2 2 2
left_child=1 -1 3 -3 -2 7 9 12 11 -5 -9 -7 -4 -12 -11
right_child=4 2 5 6 -6 8 -8 10 -10 14 13 -13 -14 -15 -16
leaf_value=0.015516163096186093 0.014653393634554231 0.015691924640706643 0.015242501021612582 -0.010133032498650699 -0.015638403953557409 0.0087865229278555022 -0.015972612008946292 0.015272686968577963 -0.001104106938119305 0.014479105567714756 0.0087544947066757039 0.00010755948002248631 0.012859200562971025 0.0014133093450482599 -0.00066481856247432771
leaf_weight=2652.3332034498453 103.45196411013603 106.79445362091064 1818.505702227354 65.248545438051224 4099.4916325509548 601.46389918029308 1517.0490350425243 85.721557855606079 98.206110194325447 16.198888778686523 120.84792450070381 45.086986675858498 706.38150456547737 89.815969541668892 37.256280168890953
leaf_count=11463 445 462 7832 261 16460 2514 6093 370 397 67 501 183 3021 370 152
internal_value=0 0.00786651 0.0040445 -0.013203 -0.0148928 0.0124725 -0.0150895 0.0139285 0.00695689 -0.00380265 0.00841505 0.0081813 0.0145757 0.0056246 0.00392435
internal_weight=0 7960.91 5308.58 1742.55 4202.94 3566.03 1635.75 2821.27 744.757 118.704 296.385 646.551 2524.89 210.664 53.4552
internal_count=50591 33686 22223 7035 16905 15188 6573 12094 3094 480 1241 2697 10853 871 219
is_linear=0
shrinkage=0.01


Tree=21
num_leaves=16
num_cat=0
split_feature=4 4 4 6 6 6 3 2 2 2 6 6 6 0 4
split_gain=13990.1 2295.19 7582.31 932.191 908.389 283.582 160.172 95.5407 77.7684 56.9221 54.9748 32.8339 29.3246 24.23 70.1834
threshold=1.0000000180025095e-35 -1.2178108470831004 -0.0051717364788055999 -0.69008807069539413 -0.69008807069539413 -0.12871831246361171 -0.56317190159850405 1.6044165318080763 1.6044165318080763 -0.30715411744440541 -0.68692542417014468 2.0155560316555357 -0.56832617947328923 1.0000000180025095e-35 1.2656326883523039
decision_type=2 2 2 2 2 2 2 2 2 2 2 2 2 2 2
left_child=1 -1 3 -3 -2 7 9 12 11 -5 -9 -7 -4 14 -6
right_child=4 2 5 6 13 8 -8 10 -10 -11 -12 -13 -14 -15 -16
leaf_value=0.015427373444748822 0.014564262492910568 0.015603304295444227 0.015307005993225266 -0.0091551344082005676 0.0051077456658717513 0.0089632044619658967 -0.015830098433236274 0.015174090289240771 -0.00093967033338401634 0.0051348477418093324 0.0039321576804648472 0.00064654346123148429 0.013110843159963234 -0.015638953977549074 -0.014507079648395689
leaf_weight=2640.97915828228 103.04625861346722 106.32932031154633 1543.7926950901747 73.911991253495216 21.79168538749218 647.66974698007107 1515.4075924605131 62.527615204453468 103.36283567547798 44.753512382507324 142.93895602226257 51.225089952349663 1003.0254113823175 3961.6178748905659 111.97792588174343
leaf_count=11463 445 462 6680 296 88 2716 6093 271 418 184 589 208 4306 15923 449
internal_value=0 0.00781257 0.0040145 -0.0130871 -0.0147598 0.0123879 -0.014954 0.0139129 0.00715629 -0.00376581 0.0073533 0.00835364 0.0144421 -0.0154976 -0.0113117
internal_weight=0 7935.92 5294.94 1740.4 4198.43 3554.54 1634.07 2752.28 802.258 118.666 205.467 698.895 2546.82 4095.39 133.77
internal_count=50591 33686 22223 7035 16905 15188 6573 11846 3342 480 860 2924 10986 16460 537
is_linear=0
shrinkage=0.01


Tree=22
num_leaves=16
num_cat=0
split_feature=4 4 4 6 6 6 3 2 2 2 6 3 6 3 2
split_gain=13738.1 2263.52 7450.84 914.952 891.328 280.809 157.402 99.0989 71.1129 55.9349 55.5671 29.1604 28.569 27.3438 25.9298
threshold=1.0000000180025095e-35 -1.2178108470831004 -0.0051717364788055999 -0.69008807069539413 -0.69008807069539413 -0.078115968059620081 -0.56317190159850405 1.2800883496726938 1.6781274822933907 -0.38577913129540725 -0.68692542417014468 10.862982477922658 -0.48135340002892862 0.34486685703893921 -0.18921659666790278
decision_type=2 2 2 2 2 2 2 2 2 2 2 2 2 2 2
left_child=1 -1 3 -3 -2 7 9 12 11 -5 -9 14 -4 -12 -7
right_child=4 2 5 6 -6 8 -8 10 -10 -11 13 -13 -14 -15 -16
leaf_value=0.0153404078772367 0.014476759388435017 0.015516552575818836 0.015066052808329528 -0.0099401665281259061 -0.015360084778126734 0.010491749719026401 -0.015690678988959088 0.015096411667505177 -0.0014268992931611342 0.0038620793254296598 0.0086264703111420208 -0.010315277900911779 0.012687900597142275 0.001333668769336397 0.0064481978237069214
leaf_weight=2629.4493475556374 102.6344857364893 105.85692402720451 1803.5363924652338 65.248420983552933 4090.7582273632288 284.86548161506653 1513.593008056283 84.998873889446259 91.319445535540581 53.385334342718124 120.48242048919201 8.5820379853248578 701.67318347096443 89.682153642177582 357.75987213850021
leaf_count=11463 445 462 7832 261 16460 1193 6093 370 369 219 501 35 3021 370 1497
internal_value=0 0.00775957 0.003985 -0.0129736 -0.0146298 0.0123046 -0.0148213 0.0137543 0.00683721 -0.00372914 0.0082738 0.0079961 0.0144 0.00551446 0.00824064
internal_weight=0 7910.43 5280.98 1738.08 4193.39 3542.9 1632.23 2800.37 742.527 118.634 295.163 651.207 2505.21 210.165 642.625
internal_count=50591 33686 22223 7035 16905 15188 6573 12094 3094 480 1241 2725 10853 871 2690
is_linear=0
shrinkage=0.01


Tree=23
num_leaves=16
num_cat=0
split_feature=4 4 4 6 6 6 3 2 2 2 6 6 6 0 4
split_gain=13491.8 2232.51 7322.19 898.132 874.669 278.198 154.715 94.0351 75.2084 54.8422 53.8116 32.1715 29.0515 23.969 68.9586
threshold=1.0000000180025095e-35 -1.2178108470831004 -0.0051717364788055999 -0.69008807069539413 -0.69008807069539413 -0.12871831246361171 -0.56317190159850405 1.6044165318080763 1.6044165318080763 -0.30715411744440541 -0.68692542417014468 2.0155560316555357 -0.56832617947328923 1.0000000180025095e-35 1.2656326883523039
decision_type=2 2 2 2 2 2 2 2 2 2 2 2 2 2 2
left_child=1 -1 3 -3 -2 7 9 12 11 -5 -9 -7 -4 14 -6
right_child=4 2 5 6 13 8 -8 10 -10 -11 -12 -13 -14 -15 -16
leaf_value=0.015255215194604845 0.014390836366071576 0.015431615628548246 0.015134322942516938 -0.0089805984457589274 0.0052057686016227537 0.0088221561316118441 -0.015554243273230633 0.015001358495111288 -0.00092388482894277481 0.005052453042979045 0.0038426839427505078 0.00058570727708273629 0.012940065764079059 -0.015365970917342533 -0.014232722965126057
leaf_weight=2617.7507745623589 102.21690408885479 105.37757456302643 1530.6776579916477 73.91003829240799 21.810716509819031 645.18406328558922 1511.6108201891184 61.991247415542603 103.37765382230282 44.687009751796722 142.6955825984478 51.185535594820976 996.00013887882233 3952.1687870323658 111.78852777183056
leaf_count=11463 445 462 6680 296 88 2716 6093 271 418 184 589 208 4306 15923 449
internal_value=0 0.00770749 0.00395598 -0.0128624 -0.0145023 0.0122224 -0.0146913 0.0137413 0.0070352 -0.00369299 0.00722219 0.00821675 0.0142694 -0.0152251 -0.0110593
internal_weight=0 7884.45 5266.7 1735.59 4187.98 3531.11 1630.21 2731.36 799.747 118.597 204.687 696.37 2526.68 4085.77 133.599
internal_count=50591 33686 22223 7035 16905 15188 6573 11846 3342 480 860 2924 10986 16460 537
is_linear=0
shrinkage=0.01


end of trees

feature_importances:
Column_6=135
Column_4=94
Column_2=73
Column_3=38
Column_0=20

parameters:
[boosting: gbdt]
[objective: binary]
[metric: binary_logloss]
[tree_learner: serial]
[device_type: cpu]
[data_sample_strategy: bagging]
[data: ]
[valid: ]
[num_iterations: 24]
[learning_rate: 0.01]
[num_leaves: 16]
[num_threads: 6]
[seed: 0]
[deterministic: 0]
[force_col_wise: 0]
[force_row_wise: 0]
[histogram_pool_size: -1]
[max_depth: -1]
[min_data_in_leaf: 20]
[min_sum_hessian_in_leaf: 0.001]
[bagging_fraction: 1]
[pos_bagging_fraction: 1]
[neg_bagging_fraction: 1]
[bagging_freq: 0]
[bagging_seed: 3]
[feature_fraction: 1]
[feature_fraction_bynode: 1]
[feature_fraction_seed: 2]
[extra_trees: 0]
[extra_seed: 6]
[early_stopping_round: 0]
[early_stopping_min_delta: 0]
[first_metric_only: 0]
[max_delta_step: 0]
[lambda_l1: 0]
[lambda_l2: 0]
[linear_lambda: 0]
[min_gain_to_split: 0]
[drop_rate: 0.1]
[max_drop: 50]
[skip_drop: 0.5]
[xgboost_dart_mode: 0]
[uniform_drop: 0]
[drop_seed: 4]
[top_rate: 0.2]
[other_rate: 0.1]
[min_data_per_group: 100]
[max_cat_threshold: 32]
[cat_l2: 10]
[cat_smooth: 10]
[max_cat_to_onehot: 4]
[top_k: 20]
[monotone_constraints: ]
[monotone_constraints_method: basic]
[monotone_penalty: 0]
[feature_contri: ]
[forcedsplits_filename: ]
[refit_decay_rate: 0.9]
[cegb_tradeoff: 1]
[cegb_penalty_split: 0]
[cegb_penalty_feature_lazy: ]
[cegb_penalty_feature_coupled: ]
[path_smooth: 0]
[interaction_constraints: ]
[verbosity: 1]
[saved_feature_importance_type: 0]
[use_quantized_grad: 0]
[num_grad_quant_bins: 4]
[quant_train_renew_leaf: 0]
[stochastic_rounding: 1]
[linear_tree: 0]
[max_bin: 255]
[max_bin_by_feature: ]
[min_data_in_bin: 3]
[bin_construct_sample_cnt: 200000]
[data_random_seed: 1]
[is_enable_sparse: 1]
[enable_bundle: 1]
[use_missing: 1]
[zero_as_missing: 0]
[feature_pre_filter: 1]
[pre_partition: 0]
[two_round: 0]
[header: 0]
[label_column: ]
[weight_column: ]
[group_column: ]
[ignore_column: ]
[categorical_feature: ]
[forcedbins_filename: ]
[precise_float_parser: 0]
[parser_config_file: ]
[objective_seed: 5]
[num_class: 1]
[is_unbalance: 0]
[scale_pos_weight: 1]
[sigmoid: 1]
[boost_from_average: 1]
[reg_sqrt: 0]
[alpha: 0.9]
[fair_c: 1]
[poisson_max_delta_step: 0.7]
[tweedie_variance_power: 1.5]
[lambdarank_truncation_level: 30]
[lambdarank_norm: 1]
[label_gain: ]
[lambdarank_position_bias_regularization: 0]
[eval_at: ]
[multi_error_top_k: 1]
[auc_mu_weights: ]
[num_machines: 1]
[local_listen_port: 12400]
[time_out: 120]
[machine_list_filename: ]
[machines: ]
[gpu_platform_id: -1]
[gpu_device_id: -1]
[gpu_use_dp: 0]
[num_gpu: 1]

end of parameters

pandas_categorical:null
